encog,BasicNetwork,java,3.4.0,1,1543241246901
[BASIC]
[BASIC:PARAMS]
[BASIC:NETWORK]
beginTraining=0
connectionLimit=0
contextTargetOffset=0,0,0
contextTargetSize=0,0,0
endTraining=2
hasContext=f
inputCount=9
layerCounts=5,11,10
layerFeedCounts=5,10,9
layerContextCount=0,0,0
layerIndex=0,5,16
output=0.2567144794,0.2000608829,0.1617633128,0.2947053656,0.0842383928,0.4792555863,0.4246757901,0.3475129172,0.8229425292,0.7189566333,0.4105325704,0.0673252477,0.7068066535,0.4907198438,0.5140981334,1,0,0,1,0,0,1,0,1,0,1
outputCount=5
weightIndex=0,55,155
weights=-1.3062255919,-0.1433516483,-0.7897231636,0.2665626035,-0.8501460095,0.8769650939,0.5472807379,0.9507959041,-0.5036250355,-0.7437081805,-0.1493500931,0.115618603,-0.6479639575,-0.9881542789,-0.380881903,-0.3130645383,-0.9141063113,0.5799501337,-0.1918627836,-0.8193942796,0.6338814009,0.2638207841,-0.5473643599,-0.7201962034,0.9480665654,0.8345127478,-1.4233515647,-1.0639867897,-0.1619876347,-1.0140169916,0.3673110307,-0.434158772,0.1374921387,-1.2280025116,0.2080701228,0.4596246078,0.1576466941,0.2122463241,-0.0389876813,-0.966099367,-0.4777654901,-0.0479255425,0.9170912702,-0.8437508561,0.5630943465,0.0182540451,0.9963770996,-1.2569005964,-1.0602057365,0.7273820688,1.2466228599,-0.9082762738,-0.8101137804,0.3569742946,-0.7399268807,-0.1406958144,0.2630020344,-0.5017608882,1.0485271636,0.0170197818,-0.0947896158,-1.2021722542,0.3533047605,1.2251401645,0.1602204292,-0.8331174424,-0.4649391351,0.2318854162,-0.7207620744,-0.6549237384,0.1370510928,-0.207788534,-0.6190799732,-0.3941096303,-0.0534642299,-0.0019873108,0.7354719973,0.993106352,-0.6849728589,0.3155533245,-1.3943264643,0.3202727362,0.4357949411,1.0724119202,-0.6645643352,0.1513052603,0.0132347927,1.2615616075,-0.241122847,-0.1967124566,0.461972922,0.7050314358,0.9023282348,-0.3399835101,-1.0894507709,0.1414145382,0.2620052741,0.3912485366,-0.1471198235,0.2502569299,0.1221250928,-1.0990885067,-0.1647820163,-1.1178688179,0.5907004403,-0.495878422,-0.097153111,-0.9356384341,-0.3077081914,0.0931630964,0.4548977497,-0.0881171873,-0.0155151187,0.0582828663,0.1344916046,0.1562436208,0.0710010761,-1.2293461193,0.3115950131,0.9007592217,-0.6226350183,-0.9375159803,-0.1694387525,0.1774352105,-0.6071013279,0.7654217929,-1.5409613915,0.2292078641,-0.1352043476,-0.0086872886,-0.6719169191,0.8362308235,0.7532469215,-0.9607485717,0.5693870106,0.1920514181,-0.343206078,0.8753844008,0.5398824978,-0.2065506659,-0.8044040377,0.3860319936,0.4858259518,-0.1178808649,-0.5939312031,0.4322693947,-0.3794362979,0.1899532378,0.6544803352,-0.6125528975,0.364924168,-0.9587957739,0.2608833703,-0.222038133,-0.7593532906
biasActivation=0,1,1
[BASIC:ACTIVATION]
"org.encog.engine.network.activation.ActivationSigmoid"
"org.encog.engine.network.activation.ActivationSigmoid"
"org.encog.engine.network.activation.ActivationLinear"
