encog,BasicNetwork,java,3.4.0,1,1543249236532
[BASIC]
[BASIC:PARAMS]
[BASIC:NETWORK]
beginTraining=0
connectionLimit=0
contextTargetOffset=0,0,0
contextTargetSize=0,0,0
endTraining=2
hasContext=f
inputCount=11
layerCounts=7,14,12
layerFeedCounts=7,13,11
layerContextCount=0,0,0
layerIndex=0,7,21
output=0,0,0,0,0,0,0,0,0,0,0,0,0,0,0,0,0,0,0,0,1,0,0,0,0,0,0,0,0,0,0,0,1
outputCount=7
weightIndex=0,98,254
weights=0.548445443,-3.9211766999,0.9203446912,-0.5187947792,1.3651462481,2.2501600054,-1.5805472927,1.5739223868,-0.0454266756,-0.0104955023,-1.1575044366,1.1754114821,1.3131433111,-0.6179359539,-3.7229443448,0.1598673271,-1.7356264148,-0.4353987322,-2.300385951,0.0279419607,-1.1675650139,-2.8499003212,1.6160155241,2.6369591244,1.8671358818,-0.3434020227,2.2765169233,-1.2919530102,2.2823251855,-0.6254633817,1.151519704,-0.4004386917,-3.3293695326,-1.4305857228,1.5938478498,-1.806331681,1.237594381,-0.6422230508,-1.8400362189,-2.4801387972,-0.4946123816,-0.4970385181,-2.1211135813,0.7625558353,-0.5594225289,-0.6008613613,2.6644655697,1.6866871468,0.166622024,-0.3853683849,1.0252497551,-1.9254631433,-0.4143681529,-2.3107645724,-2.4949094689,-1.2699506589,0.645439335,1.4797214858,0.3386070274,-0.6526490736,-3.2034243099,-1.3697657926,-0.4934684892,1.5574975333,-4.9661513683,1.6746769831,0.450331355,0.2198134576,-0.9800435901,-0.4732543259,-0.6250412878,-0.709346726,-0.1061619836,-0.8552088668,-0.7135657461,0.5378814883,-0.5898959355,0.4247062854,-0.9538426025,-0.6020210734,0.3772189183,-1.6171725593,-0.3950544789,-0.472450058,-0.1722124734,-0.452905325,-0.9951398022,-1.1073695853,-0.5994792572,0.0910964821,-0.769373964,0.317188717,0.0699165262,0.5826184225,-0.8799481456,-1.3802923143,0.0784910049,-1.2397284927,0.3830581593,3.487059742,-0.2515876048,-0.1443828454,1.27830273,-0.705179221,1.5483742202,0.1277200502,1.3547054459,0.6379610841,-2.2477365572,0.7094032022,0.2134475814,2.0566128911,1.1397708813,1.6719531317,-0.2855193919,0.0801782442,-2.4099827341,0.3120592668,-0.3731383432,0.8291673116,2.8829838671,-1.0385683289,-0.3682564096,0.584366132,-0.5637608528,-0.2564245015,0.4080013936,-1.6764891213,0.2602989789,0.0622584819,0.8304121845,1.26493649,-0.6178438959,-0.0067267575,0.2792674715,0.1710164331,0.3532521027,0.5456146784,-0.7342760717,0.7632328642,0.0025261137,0.646252792,0.5537990123,0.3391367693,0.1938141724,1.1384236904,-0.0566125578,-4.3157031171,1.2633316752,-1.4977809019,-1.1145185501,0.57801584,-1.3711986475,-0.0346011067,0.5576259609,1.1030430531,-1.8039551172,2.262193949,-0.1710618234,-3.0925344194,-0.1642121349,-0.7865039424,-1.1320357717,-0.9081224594,-0.3921928132,1.0169529363,-1.1200437119,0.0818549828,-0.4512121187,0.7244707227,-1.0182639556,0.4173253504,0.7248078383,-0.060916655,0.2243461894,-0.630264169,0.2912826173,0.0893553242,-0.4462419784,2.3154559089,0.6495155406,-1.2216467951,-0.4759839343,0.9882836826,-0.7385463189,-0.8427585869,1.5466282137,-2.7140249208,-1.6948234026,-1.1487107982,0.1016241189,-1.371620228,-0.383370103,1.3354449033,1.3092067258,-2.6745117901,0.813857335,-0.3172265529,-1.0648582427,3.0450655923,2.5012080121,0.2541020684,-0.5335236963,2.9308486979,-0.4141542142,0.5954047539,-0.6391185248,1.2337640296,-1.7076779402,1.2363435966,0.8797857268,-0.0246830436,-0.2638264883,-0.0276955971,0.1046323222,-2.7843243136,1.8622266295,-0.7088817187,-0.5858359286,0.1453134876,-0.5229615971,1.4292181483,0.937332518,0.7145518025,-1.1395122339,-0.2650472648,0.4749764708,-1.9334602467,1.5028944698,-0.3685814439,0.1112147589,0.5188400825,-1.2593342361,-0.6273254514,0.2647935418,0.0980767345,-0.3320687396,0.7015127982,0.8592333984,-2.9843223723,-0.4799943896,1.5871112907,1.2264685073,-0.5552944312,-2.3781539706,-0.3286376192,-0.5894172815,1.7383310997,2.4022555892,0.1382560585,0.9548067606,-1.5109810271,-0.1292591257,0.0326180709
biasActivation=0,1,1
[BASIC:ACTIVATION]
"org.encog.engine.network.activation.ActivationSigmoid"
"org.encog.engine.network.activation.ActivationSigmoid"
"org.encog.engine.network.activation.ActivationLinear"
