encog,BasicNetwork,java,3.4.0,1,1543246572039
[BASIC]
[BASIC:PARAMS]
[BASIC:NETWORK]
beginTraining=0
connectionLimit=0
contextTargetOffset=0,0,0
contextTargetSize=0,0,0
endTraining=2
hasContext=f
inputCount=8
layerCounts=5,11,9
layerFeedCounts=5,10,8
layerContextCount=0,0,0
layerIndex=0,5,16
output=0.8876970963,0.0466129175,0.000183914,0.0405152467,0.0405764321,0.6154070477,0.6633508943,0.0783004463,0.7801918246,0.2742663305,0.8869920949,0.3269043243,0.7124445477,0.6022164732,0.2000230805,1,0,0,0,0,1,0,0,1,1
outputCount=5
weightIndex=0,55,145
weights=0.2889521943,-0.3086083732,-1.7510281583,0.4326300242,-2.8956251597,1.5266084576,-3.7694926646,1.8267908773,3.955953655,-0.4685387049,-1.0238676372,1.0424647307,1.2118082222,-2.8390427647,-0.3820471952,-0.7470868177,2.0046287017,1.047425012,-3.797624181,-4.2684871585,-1.7360669351,-0.2353625249,0.9540738205,-1.9563701787,2.4532148405,-2.9610077955,1.3720487097,-2.5036966429,-2.1337478685,-2.81313555,-0.9812515049,1.4170370845,-0.9185032305,-0.8488636336,-1.9000068492,-1.1362813461,3.3398153769,0.0049930411,-2.8482788739,2.1846700676,-1.1406559787,1.8111709596,-0.4834474267,-2.2691843537,-2.6873273762,-0.8698912022,1.6614052205,-1.1697127139,1.0832103425,-0.5364971482,1.7490267366,3.5268078681,-2.0876205382,-3.2179796809,-1.1545595564,0.9902001226,-0.9813084999,-0.1813245683,-0.5872524678,-0.4789691657,1.1425094335,2.7886008665,0.592231119,0.3568364535,0.8540894266,-0.741787947,-1.7434899524,1.4275842155,1.035197704,0.8299839734,-0.0255484296,-0.5534615243,0.1965267642,-0.7442037844,4.0304111039,1.7815241072,0.4884521464,-0.1687751003,-1.4126632303,-0.9295471538,-1.5610473211,-0.7358435829,0.3324955851,-3.0771688565,1.7006003063,-1.5105926545,0.282612826,-0.2787164147,-2.9430855368,0.0210720243,0.9630997321,-0.8588271162,2.6384643997,1.8719334591,1.5395445048,-0.1717365309,-0.0168598027,-1.1097385281,0.1335218926,-0.9348688195,1.217202992,-1.7685419886,-3.8652459335,1.0588801187,1.8241429517,0.2206872802,0.4689112801,0.1363468688,0.0998884763,-1.4979888961,0.1076682151,1.6764502132,2.3655509546,-0.4557363278,1.6905366237,-4.540766948,-0.1881616118,-0.0783220012,-0.4259728987,3.0379586908,-1.0711846763,-0.75179272,2.0427702549,-3.1926423102,-4.1150714928,-1.4415265209,0.3060426283,1.834735255,-3.8516324933,0.8437214795,-5.2312172507,-0.8102038482,-1.1463131977,1.0129168451,0.0508297095,1.1740831547,0.3586381871,-1.5206663699,1.8144939461,-0.681185641,-0.9375917215,0.2449780683,2.6420887408,0.571004355,-1.0195627475
biasActivation=0,1,1
[BASIC:ACTIVATION]
"org.encog.engine.network.activation.ActivationSigmoid"
"org.encog.engine.network.activation.ActivationSigmoid"
"org.encog.engine.network.activation.ActivationLinear"
